network unknown {
}
variable q18 {
    type discrete [ 2 ] { 1.0, 2.0 };
}
variable q23_new {
    type discrete [ 2 ] { 1.0, 2.0 };
}
variable q25 {
    type discrete [ 2 ] { 1.0, 2.0 };
}
variable q26 {
    type discrete [ 2 ] { 1.0, 2.0 };
}
variable q27 {
    type discrete [ 2 ] { 1.0, 2.0 };
}
variable q98 {
    type discrete [ 2 ] { 1.0, 2.0 };
}
variable qn13_new {
    type discrete [ 2 ] { 1.0, 2.0 };
}
variable qn16 {
    type discrete [ 2 ] { 1.0, 2.0 };
}
variable qn22_new {
    type discrete [ 2 ] { 1.0, 2.0 };
}
variable qn28 {
    type discrete [ 2 ] { 1.0, 2.0 };
}
variable qn66 {
    type discrete [ 2 ] { 1.0, 2.0 };
}
variable qn67_new {
    type discrete [ 2 ] { 1.0, 2.0 };
}
variable qn85 {
    type discrete [ 2 ] { 1.0, 2.0 };
}
variable qn87 {
    type discrete [ 2 ] { 1.0, 2.0 };
}
variable qn93 {
    type discrete [ 2 ] { 1.0, 2.0 };
}
variable qn94 {
    type discrete [ 2 ] { 1.0, 2.0 };
}
variable qn96 {
    type discrete [ 2 ] { 1.0, 2.0 };
}
variable qnillict {
    type discrete [ 2 ] { 1.0, 2.0 };
}
probability ( q18 ) {
    table 0.20552254456483746, 0.7944774554351626 ;
}
probability ( q23_new ) {
    table 0.229465221950367, 0.770534778049633 ;
}
probability ( q25 ) {
    table 0.44302691366655017, 0.5569730863334499 ;
}
probability ( q26 | q25, qn85, qn93, qn96 ) {
    ( 1.0, 1.0, 1.0, 1.0 ) 0.6037735849056604, 0.39622641509433965;
    ( 1.0, 1.0, 1.0, 2.0 ) 0.7089783281733746, 0.29102167182662536;
    ( 1.0, 1.0, 2.0, 1.0 ) 0.4019607843137255, 0.5980392156862745;
    ( 1.0, 1.0, 2.0, 2.0 ) 0.5114503816793893, 0.48854961832061067;
    ( 1.0, 2.0, 1.0, 1.0 ) 0.4250871080139373, 0.5749128919860628;
    ( 1.0, 2.0, 1.0, 2.0 ) 0.4732510288065844, 0.5267489711934157;
    ( 1.0, 2.0, 2.0, 1.0 ) 0.18207282913165265, 0.8179271708683473;
    ( 1.0, 2.0, 2.0, 2.0 ) 0.2534246575342466, 0.7465753424657534;
    ( 2.0, 1.0, 1.0, 1.0 ) 0.20212765957446807, 0.7978723404255319;
    ( 2.0, 1.0, 1.0, 2.0 ) 0.21839080459770116, 0.7816091954022989;
    ( 2.0, 1.0, 2.0, 1.0 ) 0.14444444444444443, 0.8555555555555555;
    ( 2.0, 1.0, 2.0, 2.0 ) 0.17857142857142858, 0.8214285714285714;
    ( 2.0, 2.0, 1.0, 1.0 ) 0.08866995073891626, 0.9113300492610837;
    ( 2.0, 2.0, 1.0, 2.0 ) 0.125, 0.875;
    ( 2.0, 2.0, 2.0, 1.0 ) 0.02088912694161757, 0.9791108730583824;
    ( 2.0, 2.0, 2.0, 2.0 ) 0.040345821325648415, 0.9596541786743515;

}
probability ( q27 ) {
    table 0.19853198182453688, 0.8014680181754631 ;
}
probability ( q98 ) {
    table 0.4624257252708843, 0.5375742747291157 ;
}
probability ( qn13_new ) {
    table 0.05819643481300245, 0.9418035651869976 ;
}
probability ( qn16 ) {
    table 0.17948269835721775, 0.8205173016427822 ;
}
probability ( qn22_new ) {
    table 0.12495630898287312, 0.8750436910171269 ;
}
probability ( qn28 | q18, q26, q27, qn13_new, qn16, qn87, qn94 ) {
    ( 1.0, 1.0, 1.0, 1.0, 1.0, 1.0, 1.0 ) 0.8, 0.2;
    ( 1.0, 1.0, 1.0, 1.0, 1.0, 1.0, 2.0 ) 1.0, 0.0;
    ( 1.0, 1.0, 1.0, 1.0, 1.0, 2.0, 1.0 ) 0.8260869565217391, 0.17391304347826086;
    ( 1.0, 1.0, 1.0, 1.0, 1.0, 2.0, 2.0 ) 0.8125, 0.1875;
    ( 1.0, 1.0, 1.0, 1.0, 2.0, 1.0, 1.0 ) 1.0, 0.0;
    ( 1.0, 1.0, 1.0, 1.0, 2.0, 1.0, 2.0 ) 0.5, 0.5;
    ( 1.0, 1.0, 1.0, 1.0, 2.0, 2.0, 1.0 ) 0.5454545454545454, 0.45454545454545453;
    ( 1.0, 1.0, 1.0, 1.0, 2.0, 2.0, 2.0 ) 0.6923076923076923, 0.3076923076923077;
    ( 1.0, 1.0, 1.0, 2.0, 1.0, 1.0, 1.0 ) 0.75, 0.25;
    ( 1.0, 1.0, 1.0, 2.0, 1.0, 1.0, 2.0 ) 0.8, 0.2;
    ( 1.0, 1.0, 1.0, 2.0, 1.0, 2.0, 1.0 ) 0.8372093023255814, 0.16279069767441862;
    ( 1.0, 1.0, 1.0, 2.0, 1.0, 2.0, 2.0 ) 0.6811594202898551, 0.3188405797101449;
    ( 1.0, 1.0, 1.0, 2.0, 2.0, 1.0, 1.0 ) 0.6, 0.4;
    ( 1.0, 1.0, 1.0, 2.0, 2.0, 1.0, 2.0 ) 0.625, 0.375;
    ( 1.0, 1.0, 1.0, 2.0, 2.0, 2.0, 1.0 ) 0.4823529411764706, 0.5176470588235295;
    ( 1.0, 1.0, 1.0, 2.0, 2.0, 2.0, 2.0 ) 0.5777777777777777, 0.4222222222222222;
    ( 1.0, 1.0, 2.0, 1.0, 1.0, 1.0, 1.0 ) 0.5, 0.5;
    ( 1.0, 1.0, 2.0, 1.0, 1.0, 1.0, 2.0 ) 0.0, 1.0;
    ( 1.0, 1.0, 2.0, 1.0, 1.0, 2.0, 1.0 ) 0.5, 0.5;
    ( 1.0, 1.0, 2.0, 1.0, 1.0, 2.0, 2.0 ) 0.625, 0.375;
    ( 1.0, 1.0, 2.0, 1.0, 2.0, 1.0, 1.0 ) 0.5, 0.5;
    ( 1.0, 1.0, 2.0, 1.0, 2.0, 1.0, 2.0 ) 0.5, 0.5;
    ( 1.0, 1.0, 2.0, 1.0, 2.0, 2.0, 1.0 ) 0.3333333333333333, 0.6666666666666666;
    ( 1.0, 1.0, 2.0, 1.0, 2.0, 2.0, 2.0 ) 0.0, 1.0;
    ( 1.0, 1.0, 2.0, 2.0, 1.0, 1.0, 1.0 ) 0.0, 1.0;
    ( 1.0, 1.0, 2.0, 2.0, 1.0, 1.0, 2.0 ) 0.5, 0.5;
    ( 1.0, 1.0, 2.0, 2.0, 1.0, 2.0, 1.0 ) 0.375, 0.625;
    ( 1.0, 1.0, 2.0, 2.0, 1.0, 2.0, 2.0 ) 0.3, 0.7;
    ( 1.0, 1.0, 2.0, 2.0, 2.0, 1.0, 1.0 ) 0.0, 1.0;
    ( 1.0, 1.0, 2.0, 2.0, 2.0, 1.0, 2.0 ) 0.5, 0.5;
    ( 1.0, 1.0, 2.0, 2.0, 2.0, 2.0, 1.0 ) 0.03571428571428571, 0.9642857142857143;
    ( 1.0, 1.0, 2.0, 2.0, 2.0, 2.0, 2.0 ) 0.1935483870967742, 0.8064516129032258;
    ( 1.0, 2.0, 1.0, 1.0, 1.0, 1.0, 1.0 ) 0.5, 0.5;
    ( 1.0, 2.0, 1.0, 1.0, 1.0, 1.0, 2.0 ) 0.5, 0.5;
    ( 1.0, 2.0, 1.0, 1.0, 1.0, 2.0, 1.0 ) 0.0, 1.0;
    ( 1.0, 2.0, 1.0, 1.0, 1.0, 2.0, 2.0 ) 0.0, 1.0;
    ( 1.0, 2.0, 1.0, 1.0, 2.0, 1.0, 1.0 ) 0.5, 0.5;
    ( 1.0, 2.0, 1.0, 1.0, 2.0, 1.0, 2.0 ) 0.5, 0.5;
    ( 1.0, 2.0, 1.0, 1.0, 2.0, 2.0, 1.0 ) 0.0, 1.0;
    ( 1.0, 2.0, 1.0, 1.0, 2.0, 2.0, 2.0 ) 0.5, 0.5;
    ( 1.0, 2.0, 1.0, 2.0, 1.0, 1.0, 1.0 ) 1.0, 0.0;
    ( 1.0, 2.0, 1.0, 2.0, 1.0, 1.0, 2.0 ) 0.5, 0.5;
    ( 1.0, 2.0, 1.0, 2.0, 1.0, 2.0, 1.0 ) 0.0, 1.0;
    ( 1.0, 2.0, 1.0, 2.0, 1.0, 2.0, 2.0 ) 0.0, 1.0;
    ( 1.0, 2.0, 1.0, 2.0, 2.0, 1.0, 1.0 ) 0.5, 0.5;
    ( 1.0, 2.0, 1.0, 2.0, 2.0, 1.0, 2.0 ) 0.5, 0.5;
    ( 1.0, 2.0, 1.0, 2.0, 2.0, 2.0, 1.0 ) 0.0, 1.0;
    ( 1.0, 2.0, 1.0, 2.0, 2.0, 2.0, 2.0 ) 0.13636363636363635, 0.8636363636363636;
    ( 1.0, 2.0, 2.0, 1.0, 1.0, 1.0, 1.0 ) 0.14285714285714285, 0.8571428571428571;
    ( 1.0, 2.0, 2.0, 1.0, 1.0, 1.0, 2.0 ) 0.0, 1.0;
    ( 1.0, 2.0, 2.0, 1.0, 1.0, 2.0, 1.0 ) 0.07142857142857142, 0.9285714285714286;
    ( 1.0, 2.0, 2.0, 1.0, 1.0, 2.0, 2.0 ) 0.037037037037037035, 0.9629629629629629;
    ( 1.0, 2.0, 2.0, 1.0, 2.0, 1.0, 1.0 ) 0.0, 1.0;
    ( 1.0, 2.0, 2.0, 1.0, 2.0, 1.0, 2.0 ) 0.0, 1.0;
    ( 1.0, 2.0, 2.0, 1.0, 2.0, 2.0, 1.0 ) 0.0, 1.0;
    ( 1.0, 2.0, 2.0, 1.0, 2.0, 2.0, 2.0 ) 0.0, 1.0;
    ( 1.0, 2.0, 2.0, 2.0, 1.0, 1.0, 1.0 ) 0.0, 1.0;
    ( 1.0, 2.0, 2.0, 2.0, 1.0, 1.0, 2.0 ) 0.0, 1.0;
    ( 1.0, 2.0, 2.0, 2.0, 1.0, 2.0, 1.0 ) 0.0, 1.0;
    ( 1.0, 2.0, 2.0, 2.0, 1.0, 2.0, 2.0 ) 0.020618556701030927, 0.979381443298969;
    ( 1.0, 2.0, 2.0, 2.0, 2.0, 1.0, 1.0 ) 0.0, 1.0;
    ( 1.0, 2.0, 2.0, 2.0, 2.0, 1.0, 2.0 ) 0.0, 1.0;
    ( 1.0, 2.0, 2.0, 2.0, 2.0, 2.0, 1.0 ) 0.0, 1.0;
    ( 1.0, 2.0, 2.0, 2.0, 2.0, 2.0, 2.0 ) 0.0, 1.0;
    ( 2.0, 1.0, 1.0, 1.0, 1.0, 1.0, 1.0 ) 0.5, 0.5;
    ( 2.0, 1.0, 1.0, 1.0, 1.0, 1.0, 2.0 ) 0.5, 0.5;
    ( 2.0, 1.0, 1.0, 1.0, 1.0, 2.0, 1.0 ) 0.5, 0.5;
    ( 2.0, 1.0, 1.0, 1.0, 1.0, 2.0, 2.0 ) 0.6428571428571429, 0.35714285714285715;
    ( 2.0, 1.0, 1.0, 1.0, 2.0, 1.0, 1.0 ) 0.0, 1.0;
    ( 2.0, 1.0, 1.0, 1.0, 2.0, 1.0, 2.0 ) 0.0, 1.0;
    ( 2.0, 1.0, 1.0, 1.0, 2.0, 2.0, 1.0 ) 0.5, 0.5;
    ( 2.0, 1.0, 1.0, 1.0, 2.0, 2.0, 2.0 ) 0.3333333333333333, 0.6666666666666666;
    ( 2.0, 1.0, 1.0, 2.0, 1.0, 1.0, 1.0 ) 0.5, 0.5;
    ( 2.0, 1.0, 1.0, 2.0, 1.0, 1.0, 2.0 ) 0.75, 0.25;
    ( 2.0, 1.0, 1.0, 2.0, 1.0, 2.0, 1.0 ) 0.5897435897435898, 0.41025641025641024;
    ( 2.0, 1.0, 1.0, 2.0, 1.0, 2.0, 2.0 ) 0.5522388059701493, 0.44776119402985076;
    ( 2.0, 1.0, 1.0, 2.0, 2.0, 1.0, 1.0 ) 0.5, 0.5;
    ( 2.0, 1.0, 1.0, 2.0, 2.0, 1.0, 2.0 ) 0.6, 0.4;
    ( 2.0, 1.0, 1.0, 2.0, 2.0, 2.0, 1.0 ) 0.4253731343283582, 0.5746268656716418;
    ( 2.0, 1.0, 1.0, 2.0, 2.0, 2.0, 2.0 ) 0.4187725631768953, 0.5812274368231047;
    ( 2.0, 1.0, 2.0, 1.0, 1.0, 1.0, 1.0 ) 0.5, 0.5;
    ( 2.0, 1.0, 2.0, 1.0, 1.0, 1.0, 2.0 ) 1.0, 0.0;
    ( 2.0, 1.0, 2.0, 1.0, 1.0, 2.0, 1.0 ) 0.4, 0.6;
    ( 2.0, 1.0, 2.0, 1.0, 1.0, 2.0, 2.0 ) 0.5, 0.5;
    ( 2.0, 1.0, 2.0, 1.0, 2.0, 1.0, 1.0 ) 0.5, 0.5;
    ( 2.0, 1.0, 2.0, 1.0, 2.0, 1.0, 2.0 ) 0.0, 1.0;
    ( 2.0, 1.0, 2.0, 1.0, 2.0, 2.0, 1.0 ) 0.5, 0.5;
    ( 2.0, 1.0, 2.0, 1.0, 2.0, 2.0, 2.0 ) 0.14285714285714285, 0.8571428571428571;
    ( 2.0, 1.0, 2.0, 2.0, 1.0, 1.0, 1.0 ) 0.5, 0.5;
    ( 2.0, 1.0, 2.0, 2.0, 1.0, 1.0, 2.0 ) 0.0, 1.0;
    ( 2.0, 1.0, 2.0, 2.0, 1.0, 2.0, 1.0 ) 0.125, 0.875;
    ( 2.0, 1.0, 2.0, 2.0, 1.0, 2.0, 2.0 ) 0.1935483870967742, 0.8064516129032258;
    ( 2.0, 1.0, 2.0, 2.0, 2.0, 1.0, 1.0 ) 0.0, 1.0;
    ( 2.0, 1.0, 2.0, 2.0, 2.0, 1.0, 2.0 ) 0.0, 1.0;
    ( 2.0, 1.0, 2.0, 2.0, 2.0, 2.0, 1.0 ) 0.11594202898550725, 0.8840579710144928;
    ( 2.0, 1.0, 2.0, 2.0, 2.0, 2.0, 2.0 ) 0.09836065573770492, 0.9016393442622951;
    ( 2.0, 2.0, 1.0, 1.0, 1.0, 1.0, 1.0 ) 0.5, 0.5;
    ( 2.0, 2.0, 1.0, 1.0, 1.0, 1.0, 2.0 ) 0.5, 0.5;
    ( 2.0, 2.0, 1.0, 1.0, 1.0, 2.0, 1.0 ) 0.5, 0.5;
    ( 2.0, 2.0, 1.0, 1.0, 1.0, 2.0, 2.0 ) 0.0, 1.0;
    ( 2.0, 2.0, 1.0, 1.0, 2.0, 1.0, 1.0 ) 0.5, 0.5;
    ( 2.0, 2.0, 1.0, 1.0, 2.0, 1.0, 2.0 ) 0.5, 0.5;
    ( 2.0, 2.0, 1.0, 1.0, 2.0, 2.0, 1.0 ) 0.0, 1.0;
    ( 2.0, 2.0, 1.0, 1.0, 2.0, 2.0, 2.0 ) 0.0, 1.0;
    ( 2.0, 2.0, 1.0, 2.0, 1.0, 1.0, 1.0 ) 0.5, 0.5;
    ( 2.0, 2.0, 1.0, 2.0, 1.0, 1.0, 2.0 ) 0.5, 0.5;
    ( 2.0, 2.0, 1.0, 2.0, 1.0, 2.0, 1.0 ) 0.0, 1.0;
    ( 2.0, 2.0, 1.0, 2.0, 1.0, 2.0, 2.0 ) 0.0, 1.0;
    ( 2.0, 2.0, 1.0, 2.0, 2.0, 1.0, 1.0 ) 0.5, 0.5;
    ( 2.0, 2.0, 1.0, 2.0, 2.0, 1.0, 2.0 ) 0.5, 0.5;
    ( 2.0, 2.0, 1.0, 2.0, 2.0, 2.0, 1.0 ) 0.0, 1.0;
    ( 2.0, 2.0, 1.0, 2.0, 2.0, 2.0, 2.0 ) 0.03896103896103896, 0.961038961038961;
    ( 2.0, 2.0, 2.0, 1.0, 1.0, 1.0, 1.0 ) 0.5, 0.5;
    ( 2.0, 2.0, 2.0, 1.0, 1.0, 1.0, 2.0 ) 0.0, 1.0;
    ( 2.0, 2.0, 2.0, 1.0, 1.0, 2.0, 1.0 ) 0.0, 1.0;
    ( 2.0, 2.0, 2.0, 1.0, 1.0, 2.0, 2.0 ) 0.047619047619047616, 0.9523809523809523;
    ( 2.0, 2.0, 2.0, 1.0, 2.0, 1.0, 1.0 ) 0.0, 1.0;
    ( 2.0, 2.0, 2.0, 1.0, 2.0, 1.0, 2.0 ) 0.5, 0.5;
    ( 2.0, 2.0, 2.0, 1.0, 2.0, 2.0, 1.0 ) 0.0, 1.0;
    ( 2.0, 2.0, 2.0, 1.0, 2.0, 2.0, 2.0 ) 0.0, 1.0;
    ( 2.0, 2.0, 2.0, 2.0, 1.0, 1.0, 1.0 ) 0.0, 1.0;
    ( 2.0, 2.0, 2.0, 2.0, 1.0, 1.0, 2.0 ) 0.0, 1.0;
    ( 2.0, 2.0, 2.0, 2.0, 1.0, 2.0, 1.0 ) 0.025974025974025976, 0.974025974025974;
    ( 2.0, 2.0, 2.0, 2.0, 1.0, 2.0, 2.0 ) 0.0038022813688212928, 0.9961977186311787;
    ( 2.0, 2.0, 2.0, 2.0, 2.0, 1.0, 1.0 ) 0.0, 1.0;
    ( 2.0, 2.0, 2.0, 2.0, 2.0, 1.0, 2.0 ) 0.0, 1.0;
    ( 2.0, 2.0, 2.0, 2.0, 2.0, 2.0, 1.0 ) 0.0016051364365971107, 0.9983948635634029;
    ( 2.0, 2.0, 2.0, 2.0, 2.0, 2.0, 2.0 ) 0.0033030553261767133, 0.9966969446738233;

}
probability ( qn66 ) {
    table 0.34044040545263893, 0.659559594547361 ;
}
probability ( qn67_new ) {
    table 0.5110101363159735, 0.4889898636840266 ;
}
probability ( qn85 | q23_new, q98, qn22_new, qn66, qn67_new, qnillict ) {
    ( 1.0, 1.0, 1.0, 1.0, 1.0, 1.0 ) 0.8333333333333334, 0.16666666666666666;
    ( 1.0, 1.0, 1.0, 1.0, 1.0, 2.0 ) 0.7625, 0.2375;
    ( 1.0, 1.0, 1.0, 1.0, 2.0, 1.0 ) 0.5, 0.5;
    ( 1.0, 1.0, 1.0, 1.0, 2.0, 2.0 ) 0.5, 0.5;
    ( 1.0, 1.0, 1.0, 2.0, 1.0, 1.0 ) 0.6571428571428571, 0.34285714285714286;
    ( 1.0, 1.0, 1.0, 2.0, 1.0, 2.0 ) 0.8857142857142857, 0.11428571428571428;
    ( 1.0, 1.0, 1.0, 2.0, 2.0, 1.0 ) 0.5384615384615384, 0.46153846153846156;
    ( 1.0, 1.0, 1.0, 2.0, 2.0, 2.0 ) 0.6037735849056604, 0.39622641509433965;
    ( 1.0, 1.0, 2.0, 1.0, 1.0, 1.0 ) 0.7288135593220338, 0.2711864406779661;
    ( 1.0, 1.0, 2.0, 1.0, 1.0, 2.0 ) 0.5628140703517588, 0.4371859296482412;
    ( 1.0, 1.0, 2.0, 1.0, 2.0, 1.0 ) 0.5, 0.5;
    ( 1.0, 1.0, 2.0, 1.0, 2.0, 2.0 ) 0.5, 0.5;
    ( 1.0, 1.0, 2.0, 2.0, 1.0, 1.0 ) 0.7037037037037037, 0.2962962962962963;
    ( 1.0, 1.0, 2.0, 2.0, 1.0, 2.0 ) 0.6, 0.4;
    ( 1.0, 1.0, 2.0, 2.0, 2.0, 1.0 ) 0.4883720930232558, 0.5116279069767442;
    ( 1.0, 1.0, 2.0, 2.0, 2.0, 2.0 ) 0.5, 0.5;
    ( 1.0, 2.0, 1.0, 1.0, 1.0, 1.0 ) 0.4, 0.6;
    ( 1.0, 2.0, 1.0, 1.0, 1.0, 2.0 ) 0.5, 0.5;
    ( 1.0, 2.0, 1.0, 1.0, 2.0, 1.0 ) 0.5, 0.5;
    ( 1.0, 2.0, 1.0, 1.0, 2.0, 2.0 ) 0.5, 0.5;
    ( 1.0, 2.0, 1.0, 2.0, 1.0, 1.0 ) 0.3333333333333333, 0.6666666666666666;
    ( 1.0, 2.0, 1.0, 2.0, 1.0, 2.0 ) 0.2, 0.8;
    ( 1.0, 2.0, 1.0, 2.0, 2.0, 1.0 ) 0.5555555555555556, 0.4444444444444444;
    ( 1.0, 2.0, 1.0, 2.0, 2.0, 2.0 ) 0.043478260869565216, 0.9565217391304348;
    ( 1.0, 2.0, 2.0, 1.0, 1.0, 1.0 ) 0.16666666666666666, 0.8333333333333334;
    ( 1.0, 2.0, 2.0, 1.0, 1.0, 2.0 ) 0.19166666666666668, 0.8083333333333333;
    ( 1.0, 2.0, 2.0, 1.0, 2.0, 1.0 ) 0.5, 0.5;
    ( 1.0, 2.0, 2.0, 1.0, 2.0, 2.0 ) 0.5, 0.5;
    ( 1.0, 2.0, 2.0, 2.0, 1.0, 1.0 ) 0.0, 1.0;
    ( 1.0, 2.0, 2.0, 2.0, 1.0, 2.0 ) 0.23076923076923078, 0.7692307692307693;
    ( 1.0, 2.0, 2.0, 2.0, 2.0, 1.0 ) 0.1, 0.9;
    ( 1.0, 2.0, 2.0, 2.0, 2.0, 2.0 ) 0.15625, 0.84375;
    ( 2.0, 1.0, 1.0, 1.0, 1.0, 1.0 ) 0.7105263157894737, 0.2894736842105263;
    ( 2.0, 1.0, 1.0, 1.0, 1.0, 2.0 ) 0.5740740740740741, 0.42592592592592593;
    ( 2.0, 1.0, 1.0, 1.0, 2.0, 1.0 ) 0.5, 0.5;
    ( 2.0, 1.0, 1.0, 1.0, 2.0, 2.0 ) 0.5, 0.5;
    ( 2.0, 1.0, 1.0, 2.0, 1.0, 1.0 ) 0.7083333333333334, 0.2916666666666667;
    ( 2.0, 1.0, 1.0, 2.0, 1.0, 2.0 ) 0.5454545454545454, 0.45454545454545453;
    ( 2.0, 1.0, 1.0, 2.0, 2.0, 1.0 ) 0.631578947368421, 0.3684210526315789;
    ( 2.0, 1.0, 1.0, 2.0, 2.0, 2.0 ) 0.6440677966101694, 0.3559322033898305;
    ( 2.0, 1.0, 2.0, 1.0, 1.0, 1.0 ) 0.527027027027027, 0.47297297297297297;
    ( 2.0, 1.0, 2.0, 1.0, 1.0, 2.0 ) 0.464818763326226, 0.535181236673774;
    ( 2.0, 1.0, 2.0, 1.0, 2.0, 1.0 ) 0.5, 0.5;
    ( 2.0, 1.0, 2.0, 1.0, 2.0, 2.0 ) 0.5, 0.5;
    ( 2.0, 1.0, 2.0, 2.0, 1.0, 1.0 ) 0.5, 0.5;
    ( 2.0, 1.0, 2.0, 2.0, 1.0, 2.0 ) 0.3446808510638298, 0.6553191489361702;
    ( 2.0, 1.0, 2.0, 2.0, 2.0, 1.0 ) 0.45454545454545453, 0.5454545454545454;
    ( 2.0, 1.0, 2.0, 2.0, 2.0, 2.0 ) 0.3421487603305785, 0.6578512396694215;
    ( 2.0, 2.0, 1.0, 1.0, 1.0, 1.0 ) 0.2, 0.8;
    ( 2.0, 2.0, 1.0, 1.0, 1.0, 2.0 ) 0.3888888888888889, 0.6111111111111112;
    ( 2.0, 2.0, 1.0, 1.0, 2.0, 1.0 ) 0.5, 0.5;
    ( 2.0, 2.0, 1.0, 1.0, 2.0, 2.0 ) 0.5, 0.5;
    ( 2.0, 2.0, 1.0, 2.0, 1.0, 1.0 ) 0.0, 1.0;
    ( 2.0, 2.0, 1.0, 2.0, 1.0, 2.0 ) 0.3333333333333333, 0.6666666666666666;
    ( 2.0, 2.0, 1.0, 2.0, 2.0, 1.0 ) 0.1111111111111111, 0.8888888888888888;
    ( 2.0, 2.0, 1.0, 2.0, 2.0, 2.0 ) 0.175, 0.825;
    ( 2.0, 2.0, 2.0, 1.0, 1.0, 1.0 ) 0.14583333333333334, 0.8541666666666666;
    ( 2.0, 2.0, 2.0, 1.0, 1.0, 2.0 ) 0.13561847988077497, 0.8643815201192251;
    ( 2.0, 2.0, 2.0, 1.0, 2.0, 1.0 ) 0.5, 0.5;
    ( 2.0, 2.0, 2.0, 1.0, 2.0, 2.0 ) 0.5, 0.5;
    ( 2.0, 2.0, 2.0, 2.0, 1.0, 1.0 ) 0.24, 0.76;
    ( 2.0, 2.0, 2.0, 2.0, 1.0, 2.0 ) 0.12011173184357542, 0.8798882681564246;
    ( 2.0, 2.0, 2.0, 2.0, 2.0, 1.0 ) 0.14583333333333334, 0.8541666666666666;
    ( 2.0, 2.0, 2.0, 2.0, 2.0, 2.0 ) 0.07737656595431099, 0.922623434045689;

}
probability ( qn87 ) {
    table 0.020272631946871723, 0.9797273680531283 ;
}
probability ( qn93 | q23_new, q98, qn22_new, qn66, qn67_new, qnillict ) {
    ( 1.0, 1.0, 1.0, 1.0, 1.0, 1.0 ) 0.8181818181818182, 0.18181818181818182;
    ( 1.0, 1.0, 1.0, 1.0, 1.0, 2.0 ) 0.775, 0.225;
    ( 1.0, 1.0, 1.0, 1.0, 2.0, 1.0 ) 0.5, 0.5;
    ( 1.0, 1.0, 1.0, 1.0, 2.0, 2.0 ) 0.5, 0.5;
    ( 1.0, 1.0, 1.0, 2.0, 1.0, 1.0 ) 0.9428571428571428, 0.05714285714285714;
    ( 1.0, 1.0, 1.0, 2.0, 1.0, 2.0 ) 0.8571428571428571, 0.14285714285714285;
    ( 1.0, 1.0, 1.0, 2.0, 2.0, 1.0 ) 0.8205128205128205, 0.1794871794871795;
    ( 1.0, 1.0, 1.0, 2.0, 2.0, 2.0 ) 0.660377358490566, 0.33962264150943394;
    ( 1.0, 1.0, 2.0, 1.0, 1.0, 1.0 ) 0.7627118644067796, 0.23728813559322035;
    ( 1.0, 1.0, 2.0, 1.0, 1.0, 2.0 ) 0.6733668341708543, 0.32663316582914576;
    ( 1.0, 1.0, 2.0, 1.0, 2.0, 1.0 ) 0.5, 0.5;
    ( 1.0, 1.0, 2.0, 1.0, 2.0, 2.0 ) 0.5, 0.5;
    ( 1.0, 1.0, 2.0, 2.0, 1.0, 1.0 ) 0.8148148148148148, 0.18518518518518517;
    ( 1.0, 1.0, 2.0, 2.0, 1.0, 2.0 ) 0.6705882352941176, 0.32941176470588235;
    ( 1.0, 1.0, 2.0, 2.0, 2.0, 1.0 ) 0.6511627906976745, 0.3488372093023256;
    ( 1.0, 1.0, 2.0, 2.0, 2.0, 2.0 ) 0.5898876404494382, 0.4101123595505618;
    ( 1.0, 2.0, 1.0, 1.0, 1.0, 1.0 ) 0.4, 0.6;
    ( 1.0, 2.0, 1.0, 1.0, 1.0, 2.0 ) 0.5833333333333334, 0.4166666666666667;
    ( 1.0, 2.0, 1.0, 1.0, 2.0, 1.0 ) 0.5, 0.5;
    ( 1.0, 2.0, 1.0, 1.0, 2.0, 2.0 ) 0.5, 0.5;
    ( 1.0, 2.0, 1.0, 2.0, 1.0, 1.0 ) 0.0, 1.0;
    ( 1.0, 2.0, 1.0, 2.0, 1.0, 2.0 ) 0.3, 0.7;
    ( 1.0, 2.0, 1.0, 2.0, 2.0, 1.0 ) 0.4444444444444444, 0.5555555555555556;
    ( 1.0, 2.0, 1.0, 2.0, 2.0, 2.0 ) 0.391304347826087, 0.6086956521739131;
    ( 1.0, 2.0, 2.0, 1.0, 1.0, 1.0 ) 0.5, 0.5;
    ( 1.0, 2.0, 2.0, 1.0, 1.0, 2.0 ) 0.3416666666666667, 0.6583333333333333;
    ( 1.0, 2.0, 2.0, 1.0, 2.0, 1.0 ) 0.5, 0.5;
    ( 1.0, 2.0, 2.0, 1.0, 2.0, 2.0 ) 0.5, 0.5;
    ( 1.0, 2.0, 2.0, 2.0, 1.0, 1.0 ) 0.0, 1.0;
    ( 1.0, 2.0, 2.0, 2.0, 1.0, 2.0 ) 0.38461538461538464, 0.6153846153846154;
    ( 1.0, 2.0, 2.0, 2.0, 2.0, 1.0 ) 0.25, 0.75;
    ( 1.0, 2.0, 2.0, 2.0, 2.0, 2.0 ) 0.19375, 0.80625;
    ( 2.0, 1.0, 1.0, 1.0, 1.0, 1.0 ) 0.868421052631579, 0.13157894736842105;
    ( 2.0, 1.0, 1.0, 1.0, 1.0, 2.0 ) 0.7407407407407407, 0.25925925925925924;
    ( 2.0, 1.0, 1.0, 1.0, 2.0, 1.0 ) 0.5, 0.5;
    ( 2.0, 1.0, 1.0, 1.0, 2.0, 2.0 ) 0.5, 0.5;
    ( 2.0, 1.0, 1.0, 2.0, 1.0, 1.0 ) 0.8333333333333334, 0.16666666666666666;
    ( 2.0, 1.0, 1.0, 2.0, 1.0, 2.0 ) 0.7272727272727273, 0.2727272727272727;
    ( 2.0, 1.0, 1.0, 2.0, 2.0, 1.0 ) 0.7368421052631579, 0.2631578947368421;
    ( 2.0, 1.0, 1.0, 2.0, 2.0, 2.0 ) 0.6101694915254238, 0.3898305084745763;
    ( 2.0, 1.0, 2.0, 1.0, 1.0, 1.0 ) 0.6081081081081081, 0.3918918918918919;
    ( 2.0, 1.0, 2.0, 1.0, 1.0, 2.0 ) 0.5501066098081023, 0.44989339019189767;
    ( 2.0, 1.0, 2.0, 1.0, 2.0, 1.0 ) 0.5, 0.5;
    ( 2.0, 1.0, 2.0, 1.0, 2.0, 2.0 ) 0.5, 0.5;
    ( 2.0, 1.0, 2.0, 2.0, 1.0, 1.0 ) 0.7368421052631579, 0.2631578947368421;
    ( 2.0, 1.0, 2.0, 2.0, 1.0, 2.0 ) 0.46808510638297873, 0.5319148936170213;
    ( 2.0, 1.0, 2.0, 2.0, 2.0, 1.0 ) 0.5227272727272727, 0.4772727272727273;
    ( 2.0, 1.0, 2.0, 2.0, 2.0, 2.0 ) 0.45950413223140496, 0.540495867768595;
    ( 2.0, 2.0, 1.0, 1.0, 1.0, 1.0 ) 0.4, 0.6;
    ( 2.0, 2.0, 1.0, 1.0, 1.0, 2.0 ) 0.3611111111111111, 0.6388888888888888;
    ( 2.0, 2.0, 1.0, 1.0, 2.0, 1.0 ) 0.5, 0.5;
    ( 2.0, 2.0, 1.0, 1.0, 2.0, 2.0 ) 0.5, 0.5;
    ( 2.0, 2.0, 1.0, 2.0, 1.0, 1.0 ) 0.5, 0.5;
    ( 2.0, 2.0, 1.0, 2.0, 1.0, 2.0 ) 0.6, 0.4;
    ( 2.0, 2.0, 1.0, 2.0, 2.0, 1.0 ) 0.4444444444444444, 0.5555555555555556;
    ( 2.0, 2.0, 1.0, 2.0, 2.0, 2.0 ) 0.2, 0.8;
    ( 2.0, 2.0, 2.0, 1.0, 1.0, 1.0 ) 0.375, 0.625;
    ( 2.0, 2.0, 2.0, 1.0, 1.0, 2.0 ) 0.16393442622950818, 0.8360655737704918;
    ( 2.0, 2.0, 2.0, 1.0, 2.0, 1.0 ) 0.5, 0.5;
    ( 2.0, 2.0, 2.0, 1.0, 2.0, 2.0 ) 0.5, 0.5;
    ( 2.0, 2.0, 2.0, 2.0, 1.0, 1.0 ) 0.48, 0.52;
    ( 2.0, 2.0, 2.0, 2.0, 1.0, 2.0 ) 0.1787709497206704, 0.8212290502793296;
    ( 2.0, 2.0, 2.0, 2.0, 2.0, 1.0 ) 0.25, 0.75;
    ( 2.0, 2.0, 2.0, 2.0, 2.0, 2.0 ) 0.12380250552689757, 0.8761974944731025;

}
probability ( qn94 ) {
    table 0.2623208668297798, 0.7376791331702202 ;
}
probability ( qn96 ) {
    table 0.6076546662006291, 0.39234533379937087 ;
}
probability ( qnillict ) {
    table 0.13718979377839916, 0.8628102062216009 ;
}
